<?xml version="1.0"?>
<opencv_storage>
<cascade>
  <stageType>BOOST</stageType>
  <featureType>HAAR</featureType>
  <height>25</height>
  <width>75</width>
  <stageParams>
    <boostType>GAB</boostType>
    <minHitRate>9.9500000476837158e-01</minHitRate>
    <maxFalseAlarm>4.0000000596046448e-01</maxFalseAlarm>
    <weightTrimRate>9.4999999999999996e-01</weightTrimRate>
    <maxDepth>1</maxDepth>
    <maxWeakCount>100</maxWeakCount></stageParams>
  <featureParams>
    <maxCatCount>0</maxCatCount>
    <featSize>1</featSize>
    <mode>ALL</mode></featureParams>
  <stageNum>15</stageNum>
  <stages>
    <!-- stage 0 -->
    <_>
      <maxWeakCount>6</maxWeakCount>
      <stageThreshold>-1.4079880714416504e+00</stageThreshold>
      <weakClassifiers>
        <_>
          <internalNodes>
            0 -1 54 -5.6403025984764099e-02</internalNodes>
          <leafValues>
            5.8605664968490601e-01 -8.1058496236801147e-01</leafValues></_>
        <_>
          <internalNodes>
            0 -1 23 -1.3523331284523010e-01</internalNodes>
          <leafValues>
            4.8996883630752563e-01 -6.9791042804718018e-01</leafValues></_>
        <_>
          <internalNodes>
            0 -1 100 -4.7759953886270523e-03</internalNodes>
          <leafValues>
            4.3672534823417664e-01 -7.3422956466674805e-01</leafValues></_>
        <_>
          <internalNodes>
            0 -1 68 2.3041958920657635e-03</internalNodes>
          <leafValues>
            -5.3028398752212524e-01 5.5741637945175171e-01</leafValues></_>
        <_>
          <internalNodes>
            0 -1 0 -2.1532534155994654e-03</internalNodes>
          <leafValues>
            5.8841556310653687e-01 -4.9974173307418823e-01</leafValues></_>
        <_>
          <internalNodes>
            0 -1 89 4.1268700733780861e-03</internalNodes>
          <leafValues>
            -3.1109505891799927e-01 7.3376619815826416e-01</leafValues></_></weakClassifiers></_>
    <!-- stage 1 -->
    <_>
      <maxWeakCount>7</maxWeakCount>
      <stageThreshold>-1.7481666803359985e+00</stageThreshold>
      <weakClassifiers>
        <_>
          <internalNodes>
            0 -1 50 -1.3523921370506287e-02</internalNodes>
          <leafValues>
            4.1176471114158630e-01 -7.8316688537597656e-01</leafValues></_>
        <_>
          <internalNodes>
            0 -1 18 -9.6508666872978210e-02</internalNodes>
          <leafValues>
            5.0162762403488159e-01 -6.2944191694259644e-01</leafValues></_>
        <_>
          <internalNodes>
            0 -1 86 2.5955864693969488e-03</internalNodes>
          <leafValues>
            -4.2998814582824707e-01 5.9452599287033081e-01</leafValues></_>
        <_>
          <internalNodes>
            0 -1 40 -1.0728130117058754e-02</internalNodes>
          <leafValues>
            -9.3379282951354980e-01 2.6713636517524719e-01</leafValues></_>
        <_>
          <internalNodes>
            0 -1 109 2.9784538783133030e-03</internalNodes>
          <leafValues>
            -5.3324788808822632e-01 4.2086407542228699e-01</leafValues></_>
        <_>
          <internalNodes>
            0 -1 24 -3.2845318317413330e-02</internalNodes>
          <leafValues>
            -9.8535090684890747e-01 2.1563784778118134e-01</leafValues></_>
        <_>
          <internalNodes>
            0 -1 45 -6.9507802836596966e-03</internalNodes>
          <leafValues>
            -9.6181851625442505e-01 1.4490400254726410e-01</leafValues></_></weakClassifiers></_>
    <!-- stage 2 -->
    <_>
      <maxWeakCount>9</maxWeakCount>
      <stageThreshold>-1.6181464195251465e+00</stageThreshold>
      <weakClassifiers>
        <_>
          <internalNodes>
            0 -1 31 -1.5753077343106270e-02</internalNodes>
          <leafValues>
            5.1089590787887573e-01 -7.4628877639770508e-01</leafValues></_>
        <_>
          <internalNodes>
            0 -1 75 4.5122234150767326e-03</internalNodes>
          <leafValues>
            -7.8330755233764648e-01 2.3054300248622894e-01</leafValues></_>
        <_>
          <internalNodes>
            0 -1 53 9.6773961558938026e-03</internalNodes>
          <leafValues>
            -5.6020915508270264e-01 3.7461099028587341e-01</leafValues></_>
        <_>
          <internalNodes>
            0 -1 88 -6.7390752956271172e-03</internalNodes>
          <leafValues>
            5.2051621675491333e-01 -4.1751581430435181e-01</leafValues></_>
        <_>
          <internalNodes>
            0 -1 106 -3.7020414602011442e-03</internalNodes>
          <leafValues>
            3.7267187237739563e-01 -6.2308841943740845e-01</leafValues></_>
        <_>
          <internalNodes>
            0 -1 20 -7.2219385765492916e-03</internalNodes>
          <leafValues>
            -8.6396253108978271e-01 2.1106447279453278e-01</leafValues></_>
        <_>
          <internalNodes>
            0 -1 111 3.8349367678165436e-03</internalNodes>
          <leafValues>
            -5.4499715566635132e-01 3.6709326505661011e-01</leafValues></_>
        <_>
          <internalNodes>
            0 -1 64 3.6094202660024166e-03</internalNodes>
          <leafValues>
            -3.2631453871726990e-01 5.8797430992126465e-01</leafValues></_>
        <_>
          <internalNodes>
            0 -1 21 9.2646647244691849e-03</internalNodes>
          <leafValues>
            2.4656955897808075e-01 -9.1360449790954590e-01</leafValues></_></weakClassifiers></_>
    <!-- stage 3 -->
    <_>
      <maxWeakCount>7</maxWeakCount>
      <stageThreshold>-1.7437045574188232e+00</stageThreshold>
      <weakClassifiers>
        <_>
          <internalNodes>
            0 -1 66 9.2268828302621841e-03</internalNodes>
          <leafValues>
            -7.8779071569442749e-01 3.6416184902191162e-01</leafValues></_>
        <_>
          <internalNodes>
            0 -1 1 -1.1414696462452412e-02</internalNodes>
          <leafValues>
            6.0138332843780518e-01 -5.5534815788269043e-01</leafValues></_>
        <_>
          <internalNodes>
            0 -1 92 4.6098288148641586e-03</internalNodes>
          <leafValues>
            -4.0289187431335449e-01 4.3771702051162720e-01</leafValues></_>
        <_>
          <internalNodes>
            0 -1 69 -4.6858219429850578e-03</internalNodes>
          <leafValues>
            2.4949151277542114e-01 -7.0030927658081055e-01</leafValues></_>
        <_>
          <internalNodes>
            0 -1 49 -1.5441817231476307e-02</internalNodes>
          <leafValues>
            -9.3683278560638428e-01 1.9148401916027069e-01</leafValues></_>
        <_>
          <internalNodes>
            0 -1 98 -7.7180378139019012e-03</internalNodes>
          <leafValues>
            5.0855261087417603e-01 -3.7849581241607666e-01</leafValues></_>
        <_>
          <internalNodes>
            0 -1 80 2.4082995951175690e-03</internalNodes>
          <leafValues>
            -2.6708424091339111e-01 7.5406819581985474e-01</leafValues></_></weakClassifiers></_>
    <!-- stage 4 -->
    <_>
      <maxWeakCount>9</maxWeakCount>
      <stageThreshold>-1.8035743236541748e+00</stageThreshold>
      <weakClassifiers>
        <_>
          <internalNodes>
            0 -1 47 -6.4154504798352718e-03</internalNodes>
          <leafValues>
            3.9294117689132690e-01 -7.2244900465011597e-01</leafValues></_>
        <_>
          <internalNodes>
            0 -1 35 7.3158713057637215e-03</internalNodes>
          <leafValues>
            -5.8434361219406128e-01 3.4922319650650024e-01</leafValues></_>
        <_>
          <internalNodes>
            0 -1 84 2.0034380257129669e-02</internalNodes>
          <leafValues>
            -3.5572791099548340e-01 5.7255202531814575e-01</leafValues></_>
        <_>
          <internalNodes>
            0 -1 15 -4.6535399742424488e-03</internalNodes>
          <leafValues>
            -7.0624339580535889e-01 2.4982571601867676e-01</leafValues></_>
        <_>
          <internalNodes>
            0 -1 29 -1.7156582325696945e-02</internalNodes>
          <leafValues>
            -9.0409487485885620e-01 1.8901835381984711e-01</leafValues></_>
        <_>
          <internalNodes>
            0 -1 90 -3.1859960407018661e-02</internalNodes>
          <leafValues>
            -9.1841095685958862e-01 1.6672320663928986e-01</leafValues></_>
        <_>
          <internalNodes>
            0 -1 61 -5.5248796939849854e-02</internalNodes>
          <leafValues>
            2.9702004790306091e-01 -5.4971963167190552e-01</leafValues></_>
        <_>
          <internalNodes>
            0 -1 59 7.3859682306647301e-03</internalNodes>
          <leafValues>
            -3.7739467620849609e-01 4.7564333677291870e-01</leafValues></_>
        <_>
          <internalNodes>
            0 -1 70 -1.1358281970024109e-01</internalNodes>
          <leafValues>
            -9.3285852670669556e-01 1.8049320578575134e-01</leafValues></_></weakClassifiers></_>
    <!-- stage 5 -->
    <_>
      <maxWeakCount>7</maxWeakCount>
      <stageThreshold>-1.5519683361053467e+00</stageThreshold>
      <weakClassifiers>
        <_>
          <internalNodes>
            0 -1 51 -2.0884186960756779e-03</internalNodes>
          <leafValues>
            5.6923079490661621e-01 -8.0138885974884033e-01</leafValues></_>
        <_>
          <internalNodes>
            0 -1 76 -2.6613883674144745e-03</internalNodes>
          <leafValues>
            3.4981560707092285e-01 -5.9860360622406006e-01</leafValues></_>
        <_>
          <internalNodes>
            0 -1 71 -9.2893522232770920e-03</internalNodes>
          <leafValues>
            2.7345669269561768e-01 -8.0069625377655029e-01</leafValues></_>
        <_>
          <internalNodes>
            0 -1 55 -3.0925034079700708e-03</internalNodes>
          <leafValues>
            5.1490163803100586e-01 -4.6296727657318115e-01</leafValues></_>
        <_>
          <internalNodes>
            0 -1 2 -3.0059488490223885e-03</internalNodes>
          <leafValues>
            5.4658669233322144e-01 -4.3350213766098022e-01</leafValues></_>
        <_>
          <internalNodes>
            0 -1 33 3.1519189476966858e-02</internalNodes>
          <leafValues>
            2.3422804474830627e-01 -8.6364179849624634e-01</leafValues></_>
        <_>
          <internalNodes>
            0 -1 38 -1.0366706177592278e-02</internalNodes>
          <leafValues>
            -9.1905122995376587e-01 2.3680879175662994e-01</leafValues></_></weakClassifiers></_>
    <!-- stage 6 -->
    <_>
      <maxWeakCount>9</maxWeakCount>
      <stageThreshold>-1.4174946546554565e+00</stageThreshold>
      <weakClassifiers>
        <_>
          <internalNodes>
            0 -1 26 -1.1514819227159023e-02</internalNodes>
          <leafValues>
            6.4169383049011230e-01 -6.8765741586685181e-01</leafValues></_>
        <_>
          <internalNodes>
            0 -1 56 -7.8849811106920242e-03</internalNodes>
          <leafValues>
            4.4581994414329529e-01 -5.3323960304260254e-01</leafValues></_>
        <_>
          <internalNodes>
            0 -1 10 -1.6729603521525860e-04</internalNodes>
          <leafValues>
            -8.4132611751556396e-01 1.7059503495693207e-01</leafValues></_>
        <_>
          <internalNodes>
            0 -1 62 2.9793661087751389e-03</internalNodes>
          <leafValues>
            -6.3999849557876587e-01 2.4465741217136383e-01</leafValues></_>
        <_>
          <internalNodes>
            0 -1 30 2.0502908155322075e-03</internalNodes>
          <leafValues>
            -2.4362301826477051e-01 6.4726072549819946e-01</leafValues></_>
        <_>
          <internalNodes>
            0 -1 44 1.4118034159764647e-03</internalNodes>
          <leafValues>
            -2.7114894986152649e-01 6.4628869295120239e-01</leafValues></_>
        <_>
          <internalNodes>
            0 -1 17 1.7738018184900284e-02</internalNodes>
          <leafValues>
            2.2886304557323456e-01 -9.0611666440963745e-01</leafValues></_>
        <_>
          <internalNodes>
            0 -1 11 2.8927307575941086e-03</internalNodes>
          <leafValues>
            -3.6715057492256165e-01 4.8684707283973694e-01</leafValues></_>
        <_>
          <internalNodes>
            0 -1 32 3.6309663206338882e-02</internalNodes>
          <leafValues>
            1.6224683821201324e-01 -9.4408905506134033e-01</leafValues></_></weakClassifiers></_>
    <!-- stage 7 -->
    <_>
      <maxWeakCount>6</maxWeakCount>
      <stageThreshold>-2.2059996128082275e+00</stageThreshold>
      <weakClassifiers>
        <_>
          <internalNodes>
            0 -1 65 7.2459192015230656e-03</internalNodes>
          <leafValues>
            -7.9651570320129395e-01 5.3913044929504395e-01</leafValues></_>
        <_>
          <internalNodes>
            0 -1 6 -6.6711911931633949e-03</internalNodes>
          <leafValues>
            4.4440841674804688e-01 -6.1838030815124512e-01</leafValues></_>
        <_>
          <internalNodes>
            0 -1 79 2.1023659501224756e-03</internalNodes>
          <leafValues>
            -6.0519152879714966e-01 3.8075220584869385e-01</leafValues></_>
        <_>
          <internalNodes>
            0 -1 60 1.5754988417029381e-03</internalNodes>
          <leafValues>
            -3.1126612424850464e-01 8.0552124977111816e-01</leafValues></_>
        <_>
          <internalNodes>
            0 -1 36 -3.2419506460428238e-03</internalNodes>
          <leafValues>
            -6.1416494846343994e-01 3.7487432360649109e-01</leafValues></_>
        <_>
          <internalNodes>
            0 -1 94 -4.8629539087414742e-03</internalNodes>
          <leafValues>
            6.5008342266082764e-01 -3.2326960563659668e-01</leafValues></_></weakClassifiers></_>
    <!-- stage 8 -->
    <_>
      <maxWeakCount>7</maxWeakCount>
      <stageThreshold>-1.2896915674209595e+00</stageThreshold>
      <weakClassifiers>
        <_>
          <internalNodes>
            0 -1 73 -4.6086013317108154e-03</internalNodes>
          <leafValues>
            3.6062377691268921e-01 -7.8147614002227783e-01</leafValues></_>
        <_>
          <internalNodes>
            0 -1 108 -1.2583524920046329e-02</internalNodes>
          <leafValues>
            4.7628626227378845e-01 -5.2083271741867065e-01</leafValues></_>
        <_>
          <internalNodes>
            0 -1 74 1.0471225250512362e-03</internalNodes>
          <leafValues>
            2.7542683482170105e-01 -8.3335953950881958e-01</leafValues></_>
        <_>
          <internalNodes>
            0 -1 27 1.9153496250510216e-03</internalNodes>
          <leafValues>
            -3.5157373547554016e-01 6.3760626316070557e-01</leafValues></_>
        <_>
          <internalNodes>
            0 -1 101 -2.6466632261872292e-03</internalNodes>
          <leafValues>
            -9.5432782173156738e-01 2.5266543030738831e-01</leafValues></_>
        <_>
          <internalNodes>
            0 -1 48 8.7295053526759148e-04</internalNodes>
          <leafValues>
            -3.7840887904167175e-01 5.1287728548049927e-01</leafValues></_>
        <_>
          <internalNodes>
            0 -1 5 -8.5549317300319672e-03</internalNodes>
          <leafValues>
            -7.6997852325439453e-01 2.1450759470462799e-01</leafValues></_></weakClassifiers></_>
    <!-- stage 9 -->
    <_>
      <maxWeakCount>5</maxWeakCount>
      <stageThreshold>-1.3679603338241577e+00</stageThreshold>
      <weakClassifiers>
        <_>
          <internalNodes>
            0 -1 37 7.8966515138745308e-03</internalNodes>
          <leafValues>
            -8.3932667970657349e-01 3.4353742003440857e-01</leafValues></_>
        <_>
          <internalNodes>
            0 -1 99 -8.4982737898826599e-03</internalNodes>
          <leafValues>
            6.1942493915557861e-01 -5.2489882707595825e-01</leafValues></_>
        <_>
          <internalNodes>
            0 -1 104 -9.4011612236499786e-03</internalNodes>
          <leafValues>
            4.5077919960021973e-01 -4.5902168750762939e-01</leafValues></_>
        <_>
          <internalNodes>
            0 -1 4 -2.5195153430104256e-03</internalNodes>
          <leafValues>
            3.1776896119117737e-01 -5.8091872930526733e-01</leafValues></_>
        <_>
          <internalNodes>
            0 -1 8 -1.7500773537904024e-03</internalNodes>
          <leafValues>
            -7.7228289842605591e-01 2.0782369375228882e-01</leafValues></_></weakClassifiers></_>
    <!-- stage 10 -->
    <_>
      <maxWeakCount>6</maxWeakCount>
      <stageThreshold>-1.5702127218246460e+00</stageThreshold>
      <weakClassifiers>
        <_>
          <internalNodes>
            0 -1 34 3.5329423844814301e-03</internalNodes>
          <leafValues>
            -8.3157896995544434e-01 2.0000000298023224e-01</leafValues></_>
        <_>
          <internalNodes>
            0 -1 81 -3.4914311254397035e-04</internalNodes>
          <leafValues>
            3.5052552819252014e-01 -6.6206812858581543e-01</leafValues></_>
        <_>
          <internalNodes>
            0 -1 83 2.9138135723769665e-03</internalNodes>
          <leafValues>
            -6.5240412950515747e-01 3.7366649508476257e-01</leafValues></_>
        <_>
          <internalNodes>
            0 -1 39 -7.1686850860714912e-03</internalNodes>
          <leafValues>
            -8.3400398492813110e-01 2.1781218051910400e-01</leafValues></_>
        <_>
          <internalNodes>
            0 -1 14 -2.8625885024666786e-02</internalNodes>
          <leafValues>
            -8.7798410654067993e-01 2.1884708106517792e-01</leafValues></_>
        <_>
          <internalNodes>
            0 -1 97 2.1182531490921974e-03</internalNodes>
          <leafValues>
            1.3917911052703857e-01 -8.1349104642868042e-01</leafValues></_></weakClassifiers></_>
    <!-- stage 11 -->
    <_>
      <maxWeakCount>10</maxWeakCount>
      <stageThreshold>-1.3823485374450684e+00</stageThreshold>
      <weakClassifiers>
        <_>
          <internalNodes>
            0 -1 25 6.0216961428523064e-03</internalNodes>
          <leafValues>
            -6.5309953689575195e-01 4.9664428830146790e-01</leafValues></_>
        <_>
          <internalNodes>
            0 -1 105 3.6701790522783995e-03</internalNodes>
          <leafValues>
            -4.1224333643913269e-01 5.6927186250686646e-01</leafValues></_>
        <_>
          <internalNodes>
            0 -1 3 1.6919533663894981e-04</internalNodes>
          <leafValues>
            -5.4418319463729858e-01 3.3899348974227905e-01</leafValues></_>
        <_>
          <internalNodes>
            0 -1 7 -2.7216091752052307e-02</internalNodes>
          <leafValues>
            3.8171011209487915e-01 -4.9775511026382446e-01</leafValues></_>
        <_>
          <internalNodes>
            0 -1 85 1.1770861223340034e-02</internalNodes>
          <leafValues>
            -2.8853380680084229e-01 5.7474261522293091e-01</leafValues></_>
        <_>
          <internalNodes>
            0 -1 58 -1.2771846726536751e-02</internalNodes>
          <leafValues>
            2.4562691152095795e-01 -7.6552176475524902e-01</leafValues></_>
        <_>
          <internalNodes>
            0 -1 110 -1.3787501957267523e-03</internalNodes>
          <leafValues>
            3.9746516942977905e-01 -4.2308643460273743e-01</leafValues></_>
        <_>
          <internalNodes>
            0 -1 95 3.8360469043254852e-02</internalNodes>
          <leafValues>
            1.5945351123809814e-01 -9.2856609821319580e-01</leafValues></_>
        <_>
          <internalNodes>
            0 -1 52 8.9298551902174950e-03</internalNodes>
          <leafValues>
            -4.1182973980903625e-01 3.9266577363014221e-01</leafValues></_>
        <_>
          <internalNodes>
            0 -1 42 -6.7972741089761257e-03</internalNodes>
          <leafValues>
            7.0531505346298218e-01 -2.4052585661411285e-01</leafValues></_></weakClassifiers></_>
    <!-- stage 12 -->
    <_>
      <maxWeakCount>7</maxWeakCount>
      <stageThreshold>-1.4360857009887695e+00</stageThreshold>
      <weakClassifiers>
        <_>
          <internalNodes>
            0 -1 102 2.6093292981386185e-02</internalNodes>
          <leafValues>
            -6.8652039766311646e-01 6.6666668653488159e-01</leafValues></_>
        <_>
          <internalNodes>
            0 -1 63 2.6660715229809284e-03</internalNodes>
          <leafValues>
            -4.8975449800491333e-01 3.4739086031913757e-01</leafValues></_>
        <_>
          <internalNodes>
            0 -1 57 -2.6321692857891321e-03</internalNodes>
          <leafValues>
            -8.9825892448425293e-01 2.2401413321495056e-01</leafValues></_>
        <_>
          <internalNodes>
            0 -1 28 -5.1322216168045998e-03</internalNodes>
          <leafValues>
            4.1734763979911804e-01 -4.5808553695678711e-01</leafValues></_>
        <_>
          <internalNodes>
            0 -1 72 -1.3325920328497887e-02</internalNodes>
          <leafValues>
            -9.3201649188995361e-01 1.8089450895786285e-01</leafValues></_>
        <_>
          <internalNodes>
            0 -1 67 1.0029407218098640e-02</internalNodes>
          <leafValues>
            3.0014073848724365e-01 -5.6038123369216919e-01</leafValues></_>
        <_>
          <internalNodes>
            0 -1 16 1.3615888357162476e-01</internalNodes>
          <leafValues>
            -2.6929691433906555e-01 8.0258858203887939e-01</leafValues></_></weakClassifiers></_>
    <!-- stage 13 -->
    <_>
      <maxWeakCount>11</maxWeakCount>
      <stageThreshold>-1.2945506572723389e+00</stageThreshold>
      <weakClassifiers>
        <_>
          <internalNodes>
            0 -1 46 4.2611416429281235e-03</internalNodes>
          <leafValues>
            -6.4508390426635742e-01 7.9735684394836426e-01</leafValues></_>
        <_>
          <internalNodes>
            0 -1 103 7.7807381749153137e-03</internalNodes>
          <leafValues>
            -4.7608649730682373e-01 5.2796745300292969e-01</leafValues></_>
        <_>
          <internalNodes>
            0 -1 22 3.9696905878372490e-04</internalNodes>
          <leafValues>
            -3.5730731487274170e-01 4.9600967764854431e-01</leafValues></_>
        <_>
          <internalNodes>
            0 -1 19 2.0139876753091812e-02</internalNodes>
          <leafValues>
            2.4116747081279755e-01 -8.1774044036865234e-01</leafValues></_>
        <_>
          <internalNodes>
            0 -1 78 1.8508726498112082e-03</internalNodes>
          <leafValues>
            -4.2819148302078247e-01 4.9048596620559692e-01</leafValues></_>
        <_>
          <internalNodes>
            0 -1 96 8.5508460178971291e-03</internalNodes>
          <leafValues>
            2.3618438839912415e-01 -7.6591247320175171e-01</leafValues></_>
        <_>
          <internalNodes>
            0 -1 91 2.1168747916817665e-03</internalNodes>
          <leafValues>
            -3.1802397966384888e-01 6.8519675731658936e-01</leafValues></_>
        <_>
          <internalNodes>
            0 -1 77 1.0433321818709373e-02</internalNodes>
          <leafValues>
            -3.7532487511634827e-01 5.8046036958694458e-01</leafValues></_>
        <_>
          <internalNodes>
            0 -1 107 -4.4231628999114037e-03</internalNodes>
          <leafValues>
            8.6557447910308838e-01 -2.3237068951129913e-01</leafValues></_>
        <_>
          <internalNodes>
            0 -1 82 1.0457396274432540e-03</internalNodes>
          <leafValues>
            -4.4219973683357239e-01 4.9756002426147461e-01</leafValues></_>
        <_>
          <internalNodes>
            0 -1 13 3.8422520738095045e-03</internalNodes>
          <leafValues>
            -3.5468494892120361e-01 5.8927249908447266e-01</leafValues></_></weakClassifiers></_>
    <!-- stage 14 -->
    <_>
      <maxWeakCount>6</maxWeakCount>
      <stageThreshold>-1.4834331274032593e+00</stageThreshold>
      <weakClassifiers>
        <_>
          <internalNodes>
            0 -1 41 -3.1232354231178761e-03</internalNodes>
          <leafValues>
            1. -7.0537894964218140e-01</leafValues></_>
        <_>
          <internalNodes>
            0 -1 43 -9.7696054726839066e-03</internalNodes>
          <leafValues>
            5.0072526931762695e-01 -5.8749800920486450e-01</leafValues></_>
        <_>
          <internalNodes>
            0 -1 12 1.7308767884969711e-02</internalNodes>
          <leafValues>
            3.1154468655586243e-01 -9.6329414844512939e-01</leafValues></_>
        <_>
          <internalNodes>
            0 -1 93 -9.7340601496398449e-04</internalNodes>
          <leafValues>
            8.3261740207672119e-01 -3.9968216419219971e-01</leafValues></_>
        <_>
          <internalNodes>
            0 -1 9 -6.2587289139628410e-03</internalNodes>
          <leafValues>
            -8.8152235746383667e-01 4.7692850232124329e-01</leafValues></_>
        <_>
          <internalNodes>
            0 -1 87 -3.0048703774809837e-03</internalNodes>
          <leafValues>
            5.4010927677154541e-01 -5.7934713363647461e-01</leafValues></_></weakClassifiers></_></stages>
  <features>
    <_>
      <rects>
        <_>
          0 0 8 8 -1.</_>
        <_>
          0 0 4 4 2.</_>
        <_>
          4 4 4 4 2.</_></rects>
      <tilted>0</tilted></_>
    <_>
      <rects>
        <_>
          0 0 8 16 -1.</_>
        <_>
          0 0 4 8 2.</_>
        <_>
          4 8 4 8 2.</_></rects>
      <tilted>0</tilted></_>
    <_>
      <rects>
        <_>
          0 0 10 8 -1.</_>
        <_>
          0 0 5 4 2.</_>
        <_>
          5 4 5 4 2.</_></rects>
      <tilted>0</tilted></_>
    <_>
      <rects>
        <_>
          0 1 1 24 -1.</_>
        <_>
          0 9 1 8 3.</_></rects>
      <tilted>0</tilted></_>
    <_>
      <rects>
        <_>
          0 9 20 13 -1.</_>
        <_>
          5 9 10 13 2.</_></rects>
      <tilted>0</tilted></_>
    <_>
      <rects>
        <_>
          0 9 28 14 -1.</_>
        <_>
          0 9 14 7 2.</_>
        <_>
          14 16 14 7 2.</_></rects>
      <tilted>0</tilted></_>
    <_>
      <rects>
        <_>
          0 12 16 12 -1.</_>
        <_>
          4 12 8 12 2.</_></rects>
      <tilted>0</tilted></_>
    <_>
      <rects>
        <_>
          1 8 38 16 -1.</_>
        <_>
          1 12 38 8 2.</_></rects>
      <tilted>0</tilted></_>
    <_>
      <rects>
        <_>
          1 13 3 12 -1.</_>
        <_>
          1 16 3 6 2.</_></rects>
      <tilted>0</tilted></_>
    <_>
      <rects>
        <_>
          1 13 22 12 -1.</_>
        <_>
          1 13 11 6 2.</_>
        <_>
          12 19 11 6 2.</_></rects>
      <tilted>0</tilted></_>
    <_>
      <rects>
        <_>
          1 15 1 4 -1.</_>
        <_>
          1 16 1 2 2.</_></rects>
      <tilted>0</tilted></_>
    <_>
      <rects>
        <_>
          2 0 8 2 -1.</_>
        <_>
          4 2 4 2 2.</_></rects>
      <tilted>1</tilted></_>
    <_>
      <rects>
        <_>
          2 13 16 12 -1.</_>
        <_>
          2 13 8 6 2.</_>
        <_>
          10 19 8 6 2.</_></rects>
      <tilted>0</tilted></_>
    <_>
      <rects>
        <_>
          3 1 6 3 -1.</_>
        <_>
          5 3 2 3 3.</_></rects>
      <tilted>1</tilted></_>
    <_>
      <rects>
        <_>
          3 4 27 9 -1.</_>
        <_>
          12 4 9 9 3.</_></rects>
      <tilted>0</tilted></_>
    <_>
      <rects>
        <_>
          5 0 20 7 -1.</_>
        <_>
          10 0 10 7 2.</_></rects>
      <tilted>0</tilted></_>
    <_>
      <rects>
        <_>
          6 3 54 13 -1.</_>
        <_>
          33 3 27 13 2.</_></rects>
      <tilted>0</tilted></_>
    <_>
      <rects>
        <_>
          6 10 24 10 -1.</_>
        <_>
          14 10 8 10 3.</_></rects>
      <tilted>0</tilted></_>
    <_>
      <rects>
        <_>
          7 0 37 14 -1.</_>
        <_>
          7 7 37 7 2.</_></rects>
      <tilted>0</tilted></_>
    <_>
      <rects>
        <_>
          8 1 24 11 -1.</_>
        <_>
          16 1 8 11 3.</_></rects>
      <tilted>0</tilted></_>
    <_>
      <rects>
        <_>
          8 8 18 14 -1.</_>
        <_>
          8 8 9 7 2.</_>
        <_>
          17 15 9 7 2.</_></rects>
      <tilted>0</tilted></_>
    <_>
      <rects>
        <_>
          8 13 24 6 -1.</_>
        <_>
          16 13 8 6 3.</_></rects>
      <tilted>0</tilted></_>
    <_>
      <rects>
        <_>
          8 21 2 4 -1.</_>
        <_>
          8 23 2 2 2.</_></rects>
      <tilted>0</tilted></_>
    <_>
      <rects>
        <_>
          9 0 57 24 -1.</_>
        <_>
          9 6 57 12 2.</_></rects>
      <tilted>0</tilted></_>
    <_>
      <rects>
        <_>
          9 1 24 19 -1.</_>
        <_>
          17 1 8 19 3.</_></rects>
      <tilted>0</tilted></_>
    <_>
      <rects>
        <_>
          10 5 4 20 -1.</_>
        <_>
          11 5 2 20 2.</_></rects>
      <tilted>0</tilted></_>
    <_>
      <rects>
        <_>
          10 7 4 8 -1.</_>
        <_>
          8 9 4 4 2.</_></rects>
      <tilted>1</tilted></_>
    <_>
      <rects>
        <_>
          10 10 3 12 -1.</_>
        <_>
          11 10 1 12 3.</_></rects>
      <tilted>0</tilted></_>
    <_>
      <rects>
        <_>
          11 3 9 15 -1.</_>
        <_>
          14 3 3 15 3.</_></rects>
      <tilted>0</tilted></_>
    <_>
      <rects>
        <_>
          11 10 27 7 -1.</_>
        <_>
          20 10 9 7 3.</_></rects>
      <tilted>0</tilted></_>
    <_>
      <rects>
        <_>
          11 15 4 6 -1.</_>
        <_>
          12 15 2 6 2.</_></rects>
      <tilted>0</tilted></_>
    <_>
      <rects>
        <_>
          12 7 9 12 -1.</_>
        <_>
          15 7 3 12 3.</_></rects>
      <tilted>0</tilted></_>
    <_>
      <rects>
        <_>
          14 4 24 20 -1.</_>
        <_>
          22 4 8 20 3.</_></rects>
      <tilted>0</tilted></_>
    <_>
      <rects>
        <_>
          14 10 27 14 -1.</_>
        <_>
          23 10 9 14 3.</_></rects>
      <tilted>0</tilted></_>
    <_>
      <rects>
        <_>
          14 11 12 8 -1.</_>
        <_>
          17 11 6 8 2.</_></rects>
      <tilted>0</tilted></_>
    <_>
      <rects>
        <_>
          14 18 18 6 -1.</_>
        <_>
          14 21 18 3 2.</_></rects>
      <tilted>0</tilted></_>
    <_>
      <rects>
        <_>
          14 20 24 4 -1.</_>
        <_>
          22 20 8 4 3.</_></rects>
      <tilted>0</tilted></_>
    <_>
      <rects>
        <_>
          15 9 12 11 -1.</_>
        <_>
          19 9 4 11 3.</_></rects>
      <tilted>0</tilted></_>
    <_>
      <rects>
        <_>
          15 9 24 5 -1.</_>
        <_>
          23 9 8 5 3.</_></rects>
      <tilted>0</tilted></_>
    <_>
      <rects>
        <_>
          16 2 16 7 -1.</_>
        <_>
          20 2 8 7 2.</_></rects>
      <tilted>0</tilted></_>
    <_>
      <rects>
        <_>
          16 4 24 8 -1.</_>
        <_>
          24 4 8 8 3.</_></rects>
      <tilted>0</tilted></_>
    <_>
      <rects>
        <_>
          17 6 2 8 -1.</_>
        <_>
          17 10 2 4 2.</_></rects>
      <tilted>0</tilted></_>
    <_>
      <rects>
        <_>
          17 9 6 11 -1.</_>
        <_>
          19 9 2 11 3.</_></rects>
      <tilted>0</tilted></_>
    <_>
      <rects>
        <_>
          18 7 14 15 -1.</_>
        <_>
          18 12 14 5 3.</_></rects>
      <tilted>0</tilted></_>
    <_>
      <rects>
        <_>
          18 13 3 6 -1.</_>
        <_>
          19 13 1 6 3.</_></rects>
      <tilted>0</tilted></_>
    <_>
      <rects>
        <_>
          18 14 20 6 -1.</_>
        <_>
          28 14 10 6 2.</_></rects>
      <tilted>0</tilted></_>
    <_>
      <rects>
        <_>
          19 5 3 14 -1.</_>
        <_>
          20 5 1 14 3.</_></rects>
      <tilted>0</tilted></_>
    <_>
      <rects>
        <_>
          20 7 6 7 -1.</_>
        <_>
          23 7 3 7 2.</_></rects>
      <tilted>0</tilted></_>
    <_>
      <rects>
        <_>
          20 15 3 5 -1.</_>
        <_>
          21 15 1 5 3.</_></rects>
      <tilted>0</tilted></_>
    <_>
      <rects>
        <_>
          21 5 24 8 -1.</_>
        <_>
          29 5 8 8 3.</_></rects>
      <tilted>0</tilted></_>
    <_>
      <rects>
        <_>
          21 7 9 14 -1.</_>
        <_>
          24 7 3 14 3.</_></rects>
      <tilted>0</tilted></_>
    <_>
      <rects>
        <_>
          21 10 8 3 -1.</_>
        <_>
          23 10 4 3 2.</_></rects>
      <tilted>0</tilted></_>
    <_>
      <rects>
        <_>
          23 0 8 20 -1.</_>
        <_>
          27 0 4 20 2.</_></rects>
      <tilted>0</tilted></_>
    <_>
      <rects>
        <_>
          23 15 31 6 -1.</_>
        <_>
          23 18 31 3 2.</_></rects>
      <tilted>0</tilted></_>
    <_>
      <rects>
        <_>
          29 2 9 18 -1.</_>
        <_>
          32 8 3 6 9.</_></rects>
      <tilted>0</tilted></_>
    <_>
      <rects>
        <_>
          29 12 8 7 -1.</_>
        <_>
          31 12 4 7 2.</_></rects>
      <tilted>0</tilted></_>
    <_>
      <rects>
        <_>
          29 12 9 10 -1.</_>
        <_>
          32 12 3 10 3.</_></rects>
      <tilted>0</tilted></_>
    <_>
      <rects>
        <_>
          29 20 8 5 -1.</_>
        <_>
          31 20 4 5 2.</_></rects>
      <tilted>0</tilted></_>
    <_>
      <rects>
        <_>
          30 0 18 20 -1.</_>
        <_>
          30 5 18 10 2.</_></rects>
      <tilted>0</tilted></_>
    <_>
      <rects>
        <_>
          31 4 8 13 -1.</_>
        <_>
          35 4 4 13 2.</_></rects>
      <tilted>0</tilted></_>
    <_>
      <rects>
        <_>
          31 11 3 8 -1.</_>
        <_>
          32 11 1 8 3.</_></rects>
      <tilted>0</tilted></_>
    <_>
      <rects>
        <_>
          32 1 38 20 -1.</_>
        <_>
          32 6 38 10 2.</_></rects>
      <tilted>0</tilted></_>
    <_>
      <rects>
        <_>
          32 12 9 10 -1.</_>
        <_>
          32 17 9 5 2.</_></rects>
      <tilted>0</tilted></_>
    <_>
      <rects>
        <_>
          33 3 6 10 -1.</_>
        <_>
          33 3 3 5 2.</_>
        <_>
          36 8 3 5 2.</_></rects>
      <tilted>0</tilted></_>
    <_>
      <rects>
        <_>
          33 8 6 6 -1.</_>
        <_>
          35 8 2 6 3.</_></rects>
      <tilted>0</tilted></_>
    <_>
      <rects>
        <_>
          33 8 3 9 -1.</_>
        <_>
          30 11 3 3 3.</_></rects>
      <tilted>1</tilted></_>
    <_>
      <rects>
        <_>
          33 9 9 5 -1.</_>
        <_>
          36 9 3 5 3.</_></rects>
      <tilted>0</tilted></_>
    <_>
      <rects>
        <_>
          34 7 24 17 -1.</_>
        <_>
          42 7 8 17 3.</_></rects>
      <tilted>0</tilted></_>
    <_>
      <rects>
        <_>
          34 10 6 8 -1.</_>
        <_>
          36 10 2 8 3.</_></rects>
      <tilted>0</tilted></_>
    <_>
      <rects>
        <_>
          35 0 12 10 -1.</_>
        <_>
          39 4 4 10 3.</_></rects>
      <tilted>1</tilted></_>
    <_>
      <rects>
        <_>
          35 3 21 18 -1.</_>
        <_>
          42 9 7 6 9.</_></rects>
      <tilted>0</tilted></_>
    <_>
      <rects>
        <_>
          36 0 12 21 -1.</_>
        <_>
          36 7 12 7 3.</_></rects>
      <tilted>0</tilted></_>
    <_>
      <rects>
        <_>
          36 6 21 10 -1.</_>
        <_>
          43 6 7 10 3.</_></rects>
      <tilted>0</tilted></_>
    <_>
      <rects>
        <_>
          36 7 6 6 -1.</_>
        <_>
          39 7 3 6 2.</_></rects>
      <tilted>0</tilted></_>
    <_>
      <rects>
        <_>
          36 22 6 3 -1.</_>
        <_>
          38 22 2 3 3.</_></rects>
      <tilted>0</tilted></_>
    <_>
      <rects>
        <_>
          37 1 5 8 -1.</_>
        <_>
          37 1 5 4 2.</_></rects>
      <tilted>1</tilted></_>
    <_>
      <rects>
        <_>
          37 5 9 6 -1.</_>
        <_>
          40 5 3 6 3.</_></rects>
      <tilted>0</tilted></_>
    <_>
      <rects>
        <_>
          37 16 18 6 -1.</_>
        <_>
          37 19 18 3 2.</_></rects>
      <tilted>0</tilted></_>
    <_>
      <rects>
        <_>
          37 20 12 5 -1.</_>
        <_>
          41 20 4 5 3.</_></rects>
      <tilted>0</tilted></_>
    <_>
      <rects>
        <_>
          38 6 3 8 -1.</_>
        <_>
          38 6 3 4 2.</_></rects>
      <tilted>1</tilted></_>
    <_>
      <rects>
        <_>
          38 9 4 6 -1.</_>
        <_>
          39 9 2 6 2.</_></rects>
      <tilted>0</tilted></_>
    <_>
      <rects>
        <_>
          38 13 16 12 -1.</_>
        <_>
          42 13 8 12 2.</_></rects>
      <tilted>0</tilted></_>
    <_>
      <rects>
        <_>
          39 3 5 9 -1.</_>
        <_>
          36 6 5 3 3.</_></rects>
      <tilted>1</tilted></_>
    <_>
      <rects>
        <_>
          40 5 12 8 -1.</_>
        <_>
          43 5 6 8 2.</_></rects>
      <tilted>0</tilted></_>
    <_>
      <rects>
        <_>
          40 10 12 10 -1.</_>
        <_>
          44 10 4 10 3.</_></rects>
      <tilted>0</tilted></_>
    <_>
      <rects>
        <_>
          42 6 6 19 -1.</_>
        <_>
          44 6 2 19 3.</_></rects>
      <tilted>0</tilted></_>
    <_>
      <rects>
        <_>
          42 8 4 6 -1.</_>
        <_>
          44 8 2 6 2.</_></rects>
      <tilted>0</tilted></_>
    <_>
      <rects>
        <_>
          43 3 4 6 -1.</_>
        <_>
          41 5 4 2 3.</_></rects>
      <tilted>1</tilted></_>
    <_>
      <rects>
        <_>
          43 14 12 11 -1.</_>
        <_>
          46 14 6 11 2.</_></rects>
      <tilted>0</tilted></_>
    <_>
      <rects>
        <_>
          44 13 6 3 -1.</_>
        <_>
          46 15 2 3 3.</_></rects>
      <tilted>1</tilted></_>
    <_>
      <rects>
        <_>
          45 0 24 23 -1.</_>
        <_>
          53 0 8 23 3.</_></rects>
      <tilted>0</tilted></_>
    <_>
      <rects>
        <_>
          45 9 4 8 -1.</_>
        <_>
          46 9 2 8 2.</_></rects>
      <tilted>0</tilted></_>
    <_>
      <rects>
        <_>
          46 7 8 18 -1.</_>
        <_>
          46 7 4 9 2.</_>
        <_>
          50 16 4 9 2.</_></rects>
      <tilted>0</tilted></_>
    <_>
      <rects>
        <_>
          48 5 4 8 -1.</_>
        <_>
          49 5 2 8 2.</_></rects>
      <tilted>0</tilted></_>
    <_>
      <rects>
        <_>
          49 11 6 14 -1.</_>
        <_>
          49 11 3 7 2.</_>
        <_>
          52 18 3 7 2.</_></rects>
      <tilted>0</tilted></_>
    <_>
      <rects>
        <_>
          52 3 21 16 -1.</_>
        <_>
          59 3 7 16 3.</_></rects>
      <tilted>0</tilted></_>
    <_>
      <rects>
        <_>
          52 7 16 18 -1.</_>
        <_>
          60 7 8 18 2.</_></rects>
      <tilted>0</tilted></_>
    <_>
      <rects>
        <_>
          52 20 6 5 -1.</_>
        <_>
          54 20 2 5 3.</_></rects>
      <tilted>0</tilted></_>
    <_>
      <rects>
        <_>
          53 4 6 21 -1.</_>
        <_>
          56 4 3 21 2.</_></rects>
      <tilted>0</tilted></_>
    <_>
      <rects>
        <_>
          54 6 9 9 -1.</_>
        <_>
          57 6 3 9 3.</_></rects>
      <tilted>0</tilted></_>
    <_>
      <rects>
        <_>
          57 13 14 11 -1.</_>
        <_>
          64 13 7 11 2.</_></rects>
      <tilted>0</tilted></_>
    <_>
      <rects>
        <_>
          57 20 9 4 -1.</_>
        <_>
          60 20 3 4 3.</_></rects>
      <tilted>0</tilted></_>
    <_>
      <rects>
        <_>
          58 0 9 20 -1.</_>
        <_>
          61 0 3 20 3.</_></rects>
      <tilted>0</tilted></_>
    <_>
      <rects>
        <_>
          58 3 9 13 -1.</_>
        <_>
          61 3 3 13 3.</_></rects>
      <tilted>0</tilted></_>
    <_>
      <rects>
        <_>
          59 5 13 6 -1.</_>
        <_>
          59 5 13 3 2.</_></rects>
      <tilted>1</tilted></_>
    <_>
      <rects>
        <_>
          59 7 8 5 -1.</_>
        <_>
          61 7 4 5 2.</_></rects>
      <tilted>0</tilted></_>
    <_>
      <rects>
        <_>
          60 12 12 12 -1.</_>
        <_>
          66 12 6 12 2.</_></rects>
      <tilted>0</tilted></_>
    <_>
      <rects>
        <_>
          61 4 6 11 -1.</_>
        <_>
          63 4 2 11 3.</_></rects>
      <tilted>0</tilted></_>
    <_>
      <rects>
        <_>
          62 4 12 13 -1.</_>
        <_>
          65 4 6 13 2.</_></rects>
      <tilted>0</tilted></_>
    <_>
      <rects>
        <_>
          65 4 10 6 -1.</_>
        <_>
          70 4 5 6 2.</_></rects>
      <tilted>0</tilted></_>
    <_>
      <rects>
        <_>
          65 15 4 10 -1.</_>
        <_>
          67 15 2 10 2.</_></rects>
      <tilted>0</tilted></_>
    <_>
      <rects>
        <_>
          66 4 8 9 -1.</_>
        <_>
          70 4 4 9 2.</_></rects>
      <tilted>0</tilted></_></features></cascade>
</opencv_storage>
